solver_type L2R_LR
nr_class 2
label 1 -1
nr_feature 84
bias -1
w
-8.8193602939833248e-05 
0.0013567913636152228 
-0.0014682031134759285 
0.00065944554945881779 
-0.0011359101045953107 
-0.00038796838771335506 
-0.0011272815981977365 
0.0017335860013447091 
-0.0016396808756426462 
-0.0017081342516931267 
0.0028886148577921119 
0.00046352113024487386 
0.0043663892101801017 
0.0016767139336328657 
-0.00071844584924294296 
-0.0041901996015443928 
-0.0016344029403655303 
-0.0027612932416973771 
-0.00075313655417032742 
-0.00044491120729840011 
-0.001112629879254547 
-0.00054489627851440133 
-0.0011165705695026366 
-0.00044127996108298315 
-0.00016194988559993878 
0.0015264650716655945 
-0.00043435275176124699 
0.0022329880547132391 
0.0084549666803140633 
-0.0039191679786453907 
0.0024504407009046493 
-7.8773710152164883e-05 
0.0006321437687415415 
0.0012650968720734537 
0.0023848321817499523 
0.00010670797787505816 
-0.00012053813996124387 
-0.00054418789640631258 
-0.0015044046095453302 
0.00094700837308172659 
-0.00091451005916076016 
0.0011283350180540303 
-0.00062028887437056356 
0.0043771815011901883 
-0.00033030411820775507 
0.0048014200843211671 
4.3454943346393686e-06 
-0.0011106558365631502 
0.0056046621173872057 
0.001501049930739758 
0.0012641731216313393 
-0.0047770559819982688 
-0.0044003751863543128 
-0.0013263900129188543 
-0.0032702090020928277 
-0.0012365515784948993 
-0.0018915885282532374 
0.0032127146531413281 
-0.006198055084797028 
0.00013759086602869864 
-0.0063805070318536244 
-0.00099510698988619596 
0.00029051303209832682 
-0.010149601729143514 
0.0023508294883273564 
0.0011827444671977203 
0.0016420417066565763 
-0.0024178990033044165 
-0.0017203143672662887 
-0.0017589216454904323 
-0.0028098383108681362 
0.0025723837219817735 
-0.0042335541891280991 
0.0024014510187914746 
-0.0061122518570537118 
-0.0022188008649386649 
-0.0025071780812363619 
-0.0046478028894056111 
0.0015742466482792329 
0.00013427187212477191 
-0.0068715907464083374 
-0.0036392293548122524 
0.0062824128327107079 
-0.0052157415107626903 
