solver_type L2R_LR
nr_class 2
label 1 -1
nr_feature 84
bias -1
w
-0.00026164985773651737 
0.00524100979975367 
-0.0041031665598563862 
0.0024235150246201859 
-0.0032017182154152153 
-0.0014336858720963006 
-0.0026262539780022498 
0.00056982424478297939 
-0.005376119363492908 
-0.0069131593720783684 
0.010161376488103831 
0.0032358751967867644 
0.012121430489821746 
0.0074621616862149531 
-0.0035792078017340564 
-0.013794340978861223 
-0.0065887684751895484 
-0.0067137132351683003 
-0.0031451205597749421 
-0.0022630600885004612 
-0.005610864395489152 
-0.0022700060992317497 
-0.0015595157177159271 
-0.00029236014115024706 
0.0019442188004343442 
0.0030659719156013701 
0.0028684714251596779 
0.0074852407254216236 
0.024258910459763021 
-0.0098697837437139065 
0.010223213654126696 
-0.0034028296225961843 
0.002912743685517037 
-0.0020587092401565363 
0.0022490712216072456 
-0.0034613640026569352 
0.0010373492215168627 
-0.0025016691018154955 
-0.00014133057260199116 
0.0029861593169272374 
0.0014255925900096818 
0.0065183656693755601 
0.00068035709431501698 
0.013404297383547927 
0.0024289957308196762 
0.0079031913820808031 
0.0020267574770231598 
-0.003673380759401971 
0.0068576414141136464 
0.0076947681077802321 
0.001630432101825545 
-0.013986637232261486 
-0.0079921364397226545 
-0.0060315354742004395 
-0.011394277301878145 
-0.003675215808642154 
-0.0080292768777435464 
0.0090093679515731388 
-0.0076343510745214057 
-0.0011631421050418054 
-0.0076040184136358614 
-0.0023327191002698948 
0.0026455695440437774 
-0.018397299052973666 
0.010442027235159279 
0.007813079455226371 
0.0046589284505563653 
-0.0068149628932351377 
0.00040030318436523382 
-0.00021898672885462017 
-0.0069669741583031543 
0.0084464125004656016 
-0.0071857386120295135 
0.0069174748491963233 
-0.0108648329700319 
-0.0052886022471188548 
-0.0021460817157735591 
-0.01380816296917056 
0.0029336896726451529 
0.0050013798485197061 
-0.015237249708194326 
-0.01244230216178115 
0.013491713773393466 
-0.010496773751597513 
