solver_type L2R_LR
nr_class 2
label 1 -1
nr_feature 84
bias -1
w
0.00014636467397463219 
0.0010414272844271742 
-0.0012148587815206369 
0.00078169975187892778 
-0.0012203562109198813 
-0.00040813197070088821 
-0.0014046029102431855 
0.0020908733349926443 
-0.0016643580095154526 
-0.0022217008854059569 
0.0027947874190318608 
0.00033298856570526349 
0.0050128142806242114 
0.0023747825678986766 
-0.00054187868923766291 
-0.0043559312099243725 
-0.0014042394526747398 
-0.0029294195311144089 
-0.001323370456411368 
-0.0003292892204245281 
-0.0012913740800411702 
-0.00010529364992429651 
-0.00038597294485752972 
-0.0006660752610010268 
0.00037513535803917342 
0.0018212774950661455 
-0.00060957821037442312 
0.0027454994000691711 
0.0077828086438856761 
-0.0040750943852546897 
0.0025269617729799538 
0.00021565659484078378 
0.00077344117947916139 
0.00091906854293233222 
0.001083994994709014 
-0.00017438503931859928 
0.00043011799740883303 
-0.00062969909434150548 
-0.001301797096411252 
0.0017860234858382553 
-0.0011280518808293759 
0.0014723455369461996 
-0.0017746066476409675 
0.0033851698492339518 
0.00026396507200173916 
0.0042135907486825228 
-9.8824309169427108e-05 
-0.00077911098312292548 
0.0058096151093902787 
0.0024837090996643833 
0.0019724589736321279 
-0.0049760943922486072 
-0.0040134549083069362 
-0.0027590062654046107 
-0.0033606388986604538 
-0.0005677127561713553 
-0.0018151881666376324 
0.0039465507907081891 
-0.0048157758793156919 
-8.7274720178437507e-05 
-0.0053613464382518553 
2.6808509628938274e-05 
-0.00036261352220193888 
-0.009991434129715801 
0.0032805684152095427 
0.0023241400217930428 
0.002489128430757423 
-0.0021241724720114969 
-0.0011202157253779965 
-0.0021357160445288786 
-0.0029955056293875918 
0.0033244156148934008 
-0.0054311655807926804 
0.0020832356156945801 
-0.004937094128497025 
-0.0029093842216841429 
-0.0017691365451405435 
-0.0053815057331304218 
0.0019163677009418161 
0.00081625920531654356 
-0.0072674247211140901 
-0.0044668343705915612 
0.0080018764916286837 
-0.0049317491495036387 
