solver_type L2R_LR
nr_class 2
label 1 -1
nr_feature 84
bias -1
w
0.00013558732358261215 
0.001422829372561856 
-0.0010241060259489653 
0.00099585027736794475 
-0.000823859112648403 
3.410011745951665e-05 
-0.0011357276729980902 
0.001184877203441294 
-0.0019524002444445579 
-0.0019551185051195053 
0.0023170807574317228 
7.0804374532597043e-05 
0.0037970086926509571 
0.0020893370670253672 
-0.00029307989918743595 
-0.0039803301930267654 
-0.0013899151116225944 
-0.0031058349565825701 
-0.0016501054469238682 
0.00016202605763720576 
-0.00089751809374151263 
0.00070221135377638319 
-0.0010295759638427068 
-0.00010386390539867424 
-0.0010580655248234208 
0.0021335034597569518 
-0.00075802891904464193 
-1.3168700456051504e-05 
0.0087356872222474381 
-0.0028081528108942896 
0.0031643615059326106 
0.00073607829160454578 
0.0015834589224363329 
0.0015086716012468436 
0.0021955698442773343 
-0.00012777725720129358 
0.00040061407271156668 
-0.0002556259862195361 
-0.00034031629307703406 
0.0020706133571465847 
-0.00076701187627267124 
0.0012643003235763091 
-0.0011927117924261192 
0.0042768906170860552 
0.00035849854615088662 
0.0049622548830107567 
0.00033262781112247442 
-6.5612399523958141e-05 
0.0063582554631959444 
0.0023320442627221077 
0.0028209853481401884 
-0.0044167440938400662 
-0.0025065822408740154 
-0.0030746007476828248 
-0.0021295984105277202 
-0.00079324661123652564 
-0.001787660572782892 
0.0029814574340774167 
-0.0050139013166039578 
0.00073171512939020013 
-0.0055287286736113283 
0.0021908595245268389 
0.00013797501924709839 
-0.0090341796967846368 
0.0042073345535082905 
0.0030558374239560808 
0.0038148670952318975 
-0.0022711344771457233 
-0.00052653388716589287 
-0.0011601841954293273 
-0.0034248977166102873 
0.0029430272930635899 
-0.0056769327659237142 
0.0019458244501973209 
-0.0051368293239041924 
-0.0013997909708155813 
-0.0026949301895873804 
-0.0051552912436006824 
0.0026625825092663471 
0.00042502902640828571 
-0.006776684787779215 
-0.0030781231561614339 
0.0088767706387279533 
-0.0048685643558319669 
