solver_type L2R_LR
nr_class 2
label 1 -1
nr_feature 84
bias -1
w
-0.017591109655429656 
0.03286381777236904 
-0.03816489274756181 
0.0041510036267416008 
-0.013943440517577694 
-0.0072171352175115014 
-0.0065919608606188895 
0.0067950925552966914 
-0.026947619935273233 
-0.03260837636827682 
0.042257795204651158 
0.030617460392305198 
0.046927165905464252 
0.022321503134101993 
-0.024495746662894689 
-0.075777832978035295 
-0.028591221674058604 
-0.041448734225355922 
-0.046270120959568124 
0.00093097048437658424 
-0.030020426909349966 
0.026478346621059828 
0.016030082904454096 
-0.004625334020370288 
0.013827534701267432 
0.034103637361726967 
0.015154548064628496 
-0.0043576662352457522 
0.094475339769652056 
-0.032866548769816532 
0.061880163379121091 
-0.033462558700273121 
-0.024209781933225295 
-0.027215169703044891 
0.012280654205420521 
-0.0022404276086455993 
0.015163080222269792 
-0.0027836292525452882 
0.00099214227837468518 
0.0015215744557594251 
-0.019239186300724246 
0.0058247506749247212 
0.016388479343553079 
0.020039543314637961 
0.0059932798836195367 
0.017113146040620288 
-0.0051723314170047619 
-0.013517943597488197 
-0.0095271580979074937 
0.032500062633375716 
0.01919928454702826 
-0.067509942180711963 
-0.015460163899989337 
-0.050753532549057657 
-0.054466862492440378 
-0.047850012959131293 
-0.026359877688535222 
0.023464648628695215 
-0.07217344288069466 
-0.028061099448528262 
-0.024892087210357544 
-0.020586519841813332 
0.00031573539184370796 
-0.061626191978233755 
0.0083995125925533185 
0.032760424096018592 
-0.011143869741219569 
0.0077781725197347733 
0.014101873106725392 
-0.0149492266928776 
-0.039332962813415931 
0.015172815044003933 
-0.016730875524402705 
-0.015513814491965108 
0.0070478891320659145 
0.0011392769181391425 
-0.021121573965417181 
-0.02030021803512266 
0.0170241236582536 
0.0095157893418845122 
-0.024541192987268399 
-0.031212666875083037 
0.036337038634167297 
-0.023397042034446421 
