solver_type L2R_LR
nr_class 2
label 1 -1
nr_feature 84
bias -1
w
5.0706521629472491e-06 
0.0014866922465214222 
-0.0015193739973387924 
0.00095384303044065218 
-0.0012734331710242055 
-0.00033671126908513651 
-0.0014744274107737743 
0.0016972070000639936 
-0.0020452295719661918 
-0.0025466922638544124 
0.0032241612517540123 
0.00036395949338922072 
0.0052858644902481211 
0.0020818325890549169 
-0.00081095562508602496 
-0.0050405292616116631 
-0.0017732757000403969 
-0.0034796968942510951 
-0.0018060649315733482 
-0.00036092820697522629 
-0.0016122293434480464 
0.00014180352707933954 
-0.00067010412884987189 
-0.000408804475265782 
4.1572402282214696e-05 
0.0019877515490145064 
-0.0002886180604664594 
0.0020427690363274921 
0.0091783184906627496 
-0.0037745275876892199 
0.0034797385265163236 
5.8810831690932467e-05 
0.0011009149230457183 
0.0007602362959967143 
0.0020710813484574589 
6.4129069633560117e-05 
0.00036891719855289506 
-0.00048520795274838678 
-0.0010812533471957885 
0.0019989206502419965 
-0.001056578732217162 
0.0017924665755254278 
-0.0013660118195310826 
0.0043994380279280092 
0.00015248410496723191 
0.0049916419329712062 
0.00012668596938771848 
-0.0010107106266863848 
0.00623520084631794 
0.0020994236696565546 
0.0019516098425738932 
-0.0054604840686148601 
-0.0042838266451210001 
-0.0025779696491454378 
-0.0037850836260423654 
-0.0010160260280010689 
-0.0020446878022023726 
0.0041688832136000525 
-0.0061381495356328817 
0.00023922033913692634 
-0.0065194740907065247 
0.00031350079980413246 
-9.0845808685287831e-06 
-0.011187903032375348 
0.004036984466439816 
0.0027822780156623503 
0.0028349446015765007 
-0.0025714060188178969 
-0.0010828382733710038 
-0.0019753780510006992 
-0.0035660829646292644 
0.0033331644065368736 
-0.0054848541441321081 
0.0023309976071800406 
-0.005505574792617267 
-0.0023509170804507668 
-0.002432047721028644 
-0.0059094998258377709 
0.0025720581774437631 
0.00047810625481883759 
-0.0082126392257189512 
-0.0042628730328606312 
0.0085308515348633818 
-0.0058811954044127078 
