solver_type L2R_LR
nr_class 2
label 1 -1
nr_feature 84
bias -1
w
-0.00016418359917815822 
0.001141026379437676 
-0.0012709123182510682 
0.00078129379540724762 
-0.0010758473495249177 
-0.00021018860704653054 
-0.0013251839092635834 
0.0010077696098401566 
-0.0015994108361188988 
-0.002403107550377208 
0.0024974409829733209 
0.0002400843415384268 
0.0042997979110935072 
0.0011279441274560066 
-0.00073922345896808045 
-0.0039203166803877271 
-0.0011394238778726379 
-0.0029093677554074765 
-0.0021871340053170518 
-0.00020010602923706559 
-0.0016717989086448006 
0.00076880346089619619 
-0.00045496752692487431 
-0.00016445534727918423 
-5.7466675012630354e-05 
0.0012691779559203199 
0.00047577212369369793 
0.00063970126353477767 
0.0068280488264055124 
-0.0026743958229117626 
0.0030552228672343093 
-0.00020081704555043102 
0.00081365871235496027 
-1.6631402532350538e-05 
0.0017398144711465136 
0.00017990041351753408 
0.00060062890921977051 
-0.00041070062022999037 
-0.00044877389199833026 
0.0019357804296652387 
-0.0011714954190583133 
0.0016726615838062004 
-0.0015787950370790712 
0.0032454401928661103 
-3.3600070778448236e-06 
0.0040548220789976058 
-5.1778342277872892e-05 
-0.0011124848247844154 
0.0053822333663237571 
0.00065023292102702227 
0.0010827071370958224 
-0.003979897275141149 
-0.0026788352143169319 
-0.0019666505121698316 
-0.0037242960939847546 
-8.351395466446983e-05 
-0.0011263512680922739 
0.0042745302684179722 
-0.0049826635376630226 
0.0004386823685543772 
-0.00570872417829121 
0.00030143491381317362 
2.6774135210310131e-06 
-0.0099380894090592923 
0.003499725600204845 
0.0026893484774622159 
0.0026149423350204769 
-0.0020916908235198671 
-0.00074419210257260413 
-0.0019288613929911746 
-0.0029255897293943077 
0.0025393570822179832 
-0.0046120324859179824 
0.0019811307859887357 
-0.0032234585410609688 
-0.0013905805731967847 
-0.0014191437899492775 
-0.0052373610501754951 
0.0030579954722825182 
0.00031044018294688376 
-0.0070110969893462573 
-0.0036267154597508472 
0.0078366645213471756 
-0.0054646629628260033 
