solver_type L2R_LR
nr_class 2
label 1 -1
nr_feature 84
bias -1
w
-2.1461561006014281e-05 
0.001330777069737164 
-0.0013474213428854031 
0.00082945744491471425 
-0.0011282722881609049 
-0.00040286079002308081 
-0.0012359532920435653 
0.0011909955537243468 
-0.0015962770394847216 
-0.0023018795197915693 
0.0031046560854601302 
0.0003031674723916003 
0.0048408579811442115 
0.0012557468896977548 
-0.00072507426561705681 
-0.0046806993348496376 
-0.0018514173529579141 
-0.0032246302343495875 
-0.0011662561660643366 
-0.00085671410822174879 
-0.0017249997991663543 
-0.00063540046830458223 
-0.00030321992075993295 
-0.00018592997346401449 
0.00076786047655676886 
0.0015450216992711834 
0.0001501495325190359 
0.0030000099170696131 
0.0079961786282414342 
-0.0031675018954208049 
0.0026631538159432307 
0.00019420703888947636 
0.0010952514281315317 
0.0011001257337675526 
0.0018770264917312657 
0.00047500060875988484 
2.5491748400100116e-05 
-0.00023767009490224093 
-0.0015638322094047579 
0.0019280237707437105 
-0.00062682084758402189 
0.0018821937849040314 
-0.0013145999247093853 
0.0042113219214879065 
0.00032467156493886035 
0.0043172724394086098 
0.00047957224794521243 
-0.0010110522664695928 
0.0056164695595124232 
0.0010634677087119984 
0.00099197865833371124 
-0.0048344761001467857 
-0.0044678370971707971 
-0.0015837525376701819 
-0.0031009044047044633 
-0.0013683940960480191 
-0.0022829321617180566 
0.0032534796457822368 
-0.0053064064442295217 
0.00047634683662253611 
-0.0055504996200694094 
0.00037424227611902792 
0.00047316047548125499 
-0.0096584107862262743 
0.0052895394362813385 
0.0015761664101418182 
0.0015133221503430135 
-0.0039442906823422379 
-0.00058024620716573094 
-0.00086960972813435731 
-0.0024187937611762156 
0.0033952885888252956 
-0.0033786208516217312 
0.0032959071528280261 
-0.0056866995083799943 
-0.0026659771737399104 
-0.0027030442929376884 
-0.005794514061104014 
0.0014480815382612211 
-0.00032342912725592273 
-0.0082009633676657593 
-0.003977925757651728 
0.0056960235761904822 
-0.0059597894279262249 
